{"neuronCounts":[5,10,8],"classes":["car","fish","house","tree","bicycle","guitar","pencil","clock"],"network":{"levels":[{"weights":[[-1.2414475337443767,1.65983389734954,1.437776599521415,-2.5455626528383197,0.8130862209094679,-0.022797045160114344,-0.18037780626025016,1.0456370673056725,0.12005885137058109,-1.4883108247420285],[0.3453642976526688,-1.018917391940757,-0.7853009817308181,2.0100815827048786,-2.629772521346396,0.8145630426343907,-2.0874356862687056,-1.0004146200532267,-0.595944753749236,-0.916921285478661],[2.0269343240220015,5.987438669750727,1.8856417181869451,1.4681967106610818,1.1680693843896823,3.913443257705444,-3.4406026986755145,-6.655541738519932,5.533441828136925,5.395200874070873],[-1.745784870396446,-1.8352874265741468,1.7235653693678794,1.4550378636212116,1.6339002381382217,1.032288532517543,1.3532339696670628,2.092447410062567,0.2453612214843151,-0.12251635627878303],[0.40985837153949684,1.2498619341933241,1.4398009180383275,-0.16953760271935328,-0.3652793991366471,1.9310062409426194,0.9123908419574916,0.9269995275000796,-5.374850639186507,-1.530276840913585]],"biases":[0.4265813963190725,1.2214986154358944,-1.8091089380413607,-1.3030736962621663,-0.7304310232845826,-0.6771245383009734,-0.24224386817010196,-1.4382404213259465,0.2719663240713591,0.1568015104473789],"inputs":[0.18,0.44794188861985473,0.0813202658847764,0.7407592880819288,0.23280371451521267],"outputs":[-0.6751349922615832,0.48221933403476713,-0.13679941127529283,0.2968827418710889,-0.5417846842176772,1.2161138916157161,-0.2747238741605834,-0.4735750001214616,-0.5929223304848755,-0.5300919824147724]},{"weights":[[-0.7999743666550346,-1.569231648470854,-0.1657336330209294,-0.9188866356952794,-0.6507884815379888,0.9995677703129613,1.7806751662767422,0.1351821645608244],[0.9482579926030748,1.7340352319954973,-0.6639153455107875,-1.7614295029768317,1.625100379471403,1.8437869316710236,0.045597614015591315,-3.2020248740073285],[5.679286809008017,-1.894066882187517,-3.3379260653366534,-0.6557361327295185,-2.8131955080787985,-0.4184086707509511,0.0646949757368949,5.818063937440508],[-1.2199731732119639,-1.5084733891074602,-0.5338220807531089,2.698875714753349,-2.941489694461885,-0.3682166021610044,-1.1125085651173716,6.000275740103286],[3.534557333971332,0.8745334857677816,-1.0061771456503075,-3.719758701635293,0.6085575358414047,0.7864931009984364,-2.7302057009173586,2.7858635666892475],[-0.35865044356231307,-0.8998363652405137,-0.35801791761131446,-0.0674033600035629,-0.2543443626842589,-1.3300955582130078,0.12078909091164815,4.499787080467891],[1.0506571674799086,1.2546346600534406,1.5481750083585695,-1.456185116087213,3.474340841568542,-1.3609972536708705,-2.534608434263948,0.02712308380628704],[0.5166443109295269,0.04706344613755969,0.5791035548467223,2.8847540131296086,1.959193876230101,-5.309771474964999,-0.2867925498942009,0.782978621016748],[1.653136285020549,0.7854701659380381,-2.537962223006295,2.308412941721015,-1.4748141375982942,-2.2380327144819505,0.9249425149022581,1.970198346747564],[-0.0891904049233233,1.0079995336407257,-1.3984222846852417,-0.728675547164695,-0.7336855806588225,-2.5578145356096527,2.596413986412754,1.240579319806658]],"biases":[-1.1581393646946339,0.840854125847253,0.29641657426284185,-0.26198248886687214,-0.9862289156205444,-1.8998597337026966,-0.5272686100274411,1.2980897058605645],"inputs":[-0.6751349922615832,0.48221933403476713,-0.13679941127529283,0.2968827418710889,-0.5417846842176772,1.2161138916157161,-0.2747238741605834,-0.4735750001214616,-0.5929223304848755,-0.5300919824147724],"outputs":[-5.117233964701878,-0.3873836346644739,2.0425782100817056,0.3847436597772321,-1.5095954548199315,1.7900001129652465,-1.5131566547295052,2.4070849458918957]}]}}