{"neuronCounts":[5,10,8],"classes":["car","fish","house","tree","bicycle","guitar","pencil","clock"],"network":{"levels":[{"inputs":[0.18,0.44794188861985473,0.0813202658847764,0.7407592880819288,0.23280371451521267],"outputs":[0.4175715317807197,1.1531507305356532,0.9206249072564718,1.0349900457989234,-0.24249560940162762,0.9042097475259405,0.5456518703899174,0.18160685044767017,-0.5156944914583952,-0.6410979854259158],"biases":[0.34901167689812285,0.5322911163469133,0.7552608327319028,0.8906147083681226,0.43849484012519424,0.8655652171792587,0.5601333541274931,0.6055931793403482,-0.8095433541219581,-0.5263092729528753],"weights":[[-0.1469568456182322,-0.7053621326133239,-0.7731105484539311,0.5686421249605544,0.12058814864191669,0.04245418569617421,-0.9152388564789922,0.5846548726691596,-0.39170743930218777,0.17880948947770614],[0.1319468727904547,0.2241982470226871,-0.5350276903879241,0.4139440243997812,-0.6055389074395432,0.27262834123601953,-0.4607863820985334,0.5602040591956019,0.13255335603009577,0.5164233644946532],[0.7327162168372654,-0.5258886483636949,-0.7589495184483028,0.8958015002885578,0.7265446638202522,0.9073824532823864,-0.4951437932713061,-0.7741638046488437,0.37645004349449174,-0.9852433976323369],[-0.25104762793495583,0.7916964845799295,0.5779646518095545,-0.28662741939778735,-0.6997757657936439,-0.44938415722254765,0.29560345947286537,-0.9162087653926987,0.6342834219089335,-0.5072319762732453],[0.6971054590303574,0.4454649381124258,0.7636071457670806,-0.016872609564678065,0.11955358381682757,0.7215435940357415,0.7644261594927659,-0.16545144532074962,-0.8396960203013832,0.33313461108882425]]},{"inputs":[0.4175715317807197,1.1531507305356532,0.9206249072564718,1.0349900457989234,-0.24249560940162762,0.9042097475259405,0.5456518703899174,0.18160685044767017,-0.5156944914583952,-0.6410979854259158],"outputs":[-0.3603340652411553,-0.520980445536354,-0.21731980531137118,-1.5595796739085217,-1.7451947729865385,-0.19587637802106705,-0.31610825584297,0.5027992608778185],"biases":[0.6965272788948691,-0.693981876058773,0.7389273947083987,-0.9879870487223843,-0.5373242160855236,-0.4578872920729742,-0.9807461535753967,-0.9934179114549266],"weights":[[-0.8467494925839114,-0.7954208356536259,0.47294895838245576,0.19187718458505287,0.8490302047427836,-0.004810084355258759,0.5603600334973011,-0.8943815926350918],[0.10119611658814609,0.6049915068107037,0.5048648129338158,0.027104272125431095,-0.7912561081303204,0.3643942556184836,-0.18232372709596767,0.9692090097907489],[-0.6047371270209836,-0.7356760657356514,0.10733476187863289,0.6734837241114064,-0.6793681508723801,0.32506569348878367,-0.5058227183152821,0.5914011871561802],[0.5019367232933956,0.29712240166691783,-0.9333940905568618,-0.3267035552986899,-0.8218538086901934,-0.004227340604424423,0.18581151816982544,0.8402292758147492],[0.9161766851373292,-0.07118525340574999,-0.45421748750113267,0.2660561960126122,0.24079143349129017,0.9114872892091914,-0.6341552094748848,-0.9179399451277059],[-0.9703955281330638,0.7619333051185122,-0.5355773333019274,-0.3995307477545649,0.6071037595237123,-0.6417167962434931,0.8755464707217326,-0.529300717686505],[0.021149470104651513,-0.6400948608212347,-0.7332054241474428,-0.5249235173968674,-0.42450300673612196,0.6338583568752245,-0.5707658096405512,0.420084791338998],[0.9301758894151053,-0.2852165459937459,-0.6808265403779226,0.9369109908880362,0.6856253230540075,0.5062999435481141,0.39340582987610384,-0.62141722172897],[-0.6271010212763097,-0.4611865624552749,0.8161753445917177,0.8162959264138472,-0.8936221472912442,-0.6601808531016222,0.72842764470245,-0.11966072868150324],[0.2916712842661897,0.5704458029931336,-0.7020134232390003,0.002884014970816029,0.02836972777330704,0.667693986550419,-0.9116188608774043,0.9111221234530387]]}]}}