const model = {"neuronCounts":[5,10,8],"classes":["car","fish","house","tree","bicycle","guitar","pencil","clock"],"network":{"levels":[{"inputs":[0.18,0.44794188861985473,0.0813202658847764,0.7407592880819288,0.23280371451521267],"outputs":[-0.5863139876149791,0.13377338495906377,-0.4342489018314112,0.46247952524058533,-1.212282871991343,-0.16058399813429208,-0.1984070541341656,-0.6893405536458207,0.593493677609408,0.3658966175096378],"biases":[-0.06940304308757472,-0.7750448034272632,-0.7762116273381015,-0.07221902284148385,-0.9352971593160944,-0.4372550933564838,-0.0791403747909536,-0.8035380496183859,0.7503813625929929,0.13842878543666126],"weights":[[0.9837029152169676,0.10706378156454832,-0.9251262007421595,-0.2825496495203019,0.5290710595231092,-0.006357165665347608,-0.6823044826841032,0.7748047603869521,-0.5955503058954963,-0.020171719127919818],[-0.9072555848937127,0.3916618270661303,0.9944389525023687,-0.5029257659035493,0.29955492051645427,-0.1970109946563099,-0.43182264999656983,-0.47813453083578716,-0.3319896757923808,-0.5431618269484555],[-0.6905559819311478,0.05732979877545574,-0.7780910165361861,0.954206318660753,-0.16891609491569115,-0.45463041444065366,-0.079854642589968,0.1619388206874004,0.5491042502263661,0.7913648409020926],[-0.3532296551449794,0.9184654374337646,0.3246991772574277,0.9426356895987729,-0.8237988281394246,0.5253508511061473,0.16024977079375047,0.27005480711771357,-0.1971589766278199,0.8266971535160383],[0.12987187463175243,0.12491678325720601,-0.49060550488785326,0.15024050880266193,0.5050230200147752,0.059608180303609704,0.3641130715797085,-0.10440293364620645,0.8608861435505872,-0.8691180829642389]]},{"inputs":[-0.5863139876149791,0.13377338495906377,-0.4342489018314112,0.46247952524058533,-1.212282871991343,-0.16058399813429208,-0.1984070541341656,-0.6893405536458207,0.593493677609408,0.3658966175096378],"outputs":[-0.2054067846185003,-1.9167379562083287,-0.9215568227420795,0.47333172199998175,0.09748820608226547,0.6464849753870558,-0.0012181456957249814,-2.1984734884354156],"biases":[-0.1937801013906988,-0.2019355027168559,-0.6544494208072216,0.7005742971730946,0.22385463974327013,0.7472783575571551,0.7609237752777611,-0.6316659283813943],"weights":[[0.014670834254343568,-0.058159968966522424,0.615063719293544,-0.9692390655546181,0.5842597555490787,-0.4080039235991997,-0.09782840082478872,0.9402129062369387],[-0.5327302386493238,-0.4468423752529964,-0.6367510971743036,0.6967043146669583,0.1367982391440501,-0.7850023925632361,0.49041109230209656,-0.8053346298025699],[-0.20024710852477057,-0.6771592275240286,0.45345305374231204,0.5917936199395291,-0.8825544130628589,0.09997994497766882,-0.13217927812117924,0.7917072834034213],[0.43381029159821605,-0.5496295881888518,-0.029782308196611318,0.8865243689366555,-0.3260615216188736,0.3466506110467442,0.4935038734394941,-0.5637612001645032],[0.4125736320383564,0.9301432260225151,-0.021995724241503645,0.583164990431031,-0.7160318905250427,-0.5256433912583214,0.709046306251103,0.23842083750539933],[0.3350303011427891,0.7899069352912216,-0.06840438323229447,0.4063389656641698,0.6682265016297553,0.37570043058205993,-0.9970604423474239,-0.911724393043583],[-0.6357013829488611,0.061339767839434955,0.9397083084937377,-0.02087974291396133,0.31090024375718084,0.05260476110529444,-0.22617071635404962,0.4170907296515671],[-0.45545540390543104,0.9979114676077909,-0.8710010847593237,-0.5434744755347727,0.5614425960853899,0.48298412596395357,0.7787579536720735,-0.06660338396024379],[0.02271678135715005,0.39455611171891425,0.2606555383736633,-0.6863843836127033,-0.6134958937724866,-0.4283856596198774,0.4844366966877711,0.2636957977960921],[-0.32512636595490063,-0.02361983020576064,-0.5929000093472654,-0.6584908037060302,0.04791226382340685,-0.9051111622742334,-0.7292769768832255,-0.7661303994928628]]}]}};